digraph Tree {
node [shape=box] ;
0 [label="纹理 <= 0.5\ngini = 0.4983\nsamples = 17\nvalue = [9, 8]\nclass = 否"] ;
1 [label="触感 <= 0.5\ngini = 0.3457\nsamples = 9\nvalue = [2, 7]\nclass = 是"] ;
0 -> 1 [labeldistance=2.5, labelangle=45, headlabel="True"] ;
2 [label="gini = 0.0\nsamples = 6\nvalue = [0, 6]\nclass = 是"] ;
1 -> 2 ;
3 [label="色泽 <= 0.5\ngini = 0.4444\nsamples = 3\nvalue = [2, 1]\nclass = 否"] ;
1 -> 3 ;
4 [label="敲声 <= 1.0\ngini = 0.5\nsamples = 2\nvalue = [1, 1]\nclass = 否"] ;
3 -> 4 ;
5 [label="gini = 0.0\nsamples = 1\nvalue = [0, 1]\nclass = 是"] ;
4 -> 5 ;
6 [label="gini = 0.0\nsamples = 1\nvalue = [1, 0]\nclass = 否"] ;
4 -> 6 ;
7 [label="gini = 0.0\nsamples = 1\nvalue = [1, 0]\nclass = 否"] ;
3 -> 7 ;
8 [label="触感 <= 0.5\ngini = 0.2188\nsamples = 8\nvalue = [7, 1]\nclass = 否"] ;
0 -> 8 [labeldistance=2.5, labelangle=-45, headlabel="False"] ;
9 [label="gini = 0.0\nsamples = 6\nvalue = [6, 0]\nclass = 否"] ;
8 -> 9 ;
10 [label="色泽 <= 1.5\ngini = 0.5\nsamples = 2\nvalue = [1, 1]\nclass = 否"] ;
8 -> 10 ;
11 [label="gini = 0.0\nsamples = 1\nvalue = [0, 1]\nclass = 是"] ;
10 -> 11 ;
12 [label="gini = 0.0\nsamples = 1\nvalue = [1, 0]\nclass = 否"] ;
10 -> 12 ;
}